{
  "metadata": {
    "maxDemand": 36,
    "windowSize": 5,
    "trainedAt": "2026-06-20T23:24:52.658Z",
    "trainingSamples": 300
  },
  "network": {
    "type": "NeuralNetwork",
    "sizes": [
      5,
      10,
      10,
      1
    ],
    "layers": [
      {
        "weights": [],
        "biases": []
      },
      {
        "weights": [
          [
            -0.5631723403930664,
            -0.5795100331306458,
            -0.6607402563095093,
            -0.657025158405304,
            -0.557214081287384
          ],
          [
            0.14493389427661896,
            0.22247660160064697,
            0.4892139434814453,
            0.3558846712112427,
            0.46618175506591797
          ],
          [
            -0.3238440752029419,
            -0.2794297933578491,
            -0.27687105536460876,
            -0.13370634615421295,
            -0.0855991393327713
          ],
          [
            -0.17675462365150452,
            -0.33636602759361267,
            -0.374539315700531,
            -0.36192789673805237,
            -0.45915502309799194
          ],
          [
            -0.5328322052955627,
            -0.4565427005290985,
            -0.47617799043655396,
            -0.26623767614364624,
            -0.6103390455245972
          ],
          [
            0.34730833768844604,
            0.17921651899814606,
            0.4523871839046478,
            0.13912424445152283,
            0.1743934005498886
          ],
          [
            0.5525916814804077,
            0.3319810926914215,
            0.40368515253067017,
            0.37350958585739136,
            0.4672662913799286
          ],
          [
            0.18870116770267487,
            0.25088217854499817,
            0.4606405198574066,
            0.4252324402332306,
            0.24056509137153625
          ],
          [
            0.22485053539276123,
            0.21634982526302338,
            0.3065301179885864,
            -0.07257512956857681,
            0.27250775694847107
          ],
          [
            -0.3799566626548767,
            -0.5751737952232361,
            -0.6193203330039978,
            -0.5350672006607056,
            -0.6568233966827393
          ]
        ],
        "biases": [
          0.4916122257709503,
          -0.03537643328309059,
          0.040925223380327225,
          -0.0459321029484272,
          0.1420196294784546,
          -0.142876535654068,
          -0.18397371470928192,
          0.0068918331526219845,
          -0.13318771123886108,
          0.41235485672950745
        ]
      },
      {
        "weights": [
          [
            0.9692549705505371,
            -0.43321692943573,
            0.39343202114105225,
            0.5171485543251038,
            0.6915813684463501,
            -0.5047666430473328,
            -0.5694934129714966,
            -0.23846349120140076,
            -0.46138259768486023,
            0.842030942440033
          ],
          [
            0.2499469518661499,
            -0.2971231937408447,
            0.007216792553663254,
            0.27143704891204834,
            0.10060742497444153,
            -0.07895489037036896,
            -0.33329248428344727,
            0.0731544941663742,
            -0.23666290938854218,
            0.21592670679092407
          ],
          [
            -0.784221887588501,
            0.42307862639427185,
            -0.2543293237686157,
            -0.22934778034687042,
            -0.6019895672798157,
            0.10297732055187225,
            0.5296041965484619,
            0.3421744704246521,
            0.019110776484012604,
            -0.650873601436615
          ],
          [
            -0.5373456478118896,
            0.07282880693674088,
            -0.2563531994819641,
            -0.14120987057685852,
            -0.36927998065948486,
            0.14997771382331848,
            0.40077632665634155,
            0.33767169713974,
            -0.03080328367650509,
            -0.5499434471130371
          ],
          [
            -0.11311724036931992,
            0.1996246725320816,
            -0.15385664999485016,
            -0.29925107955932617,
            -0.17037439346313477,
            0.059029415249824524,
            0.3297900855541229,
            0.23440346121788025,
            0.18804286420345306,
            -0.26908358931541443
          ],
          [
            0.7319525480270386,
            -0.31454789638519287,
            0.14382576942443848,
            0.23677119612693787,
            0.5318556427955627,
            -0.16235750913619995,
            -0.20784339308738708,
            -0.44956567883491516,
            -0.07140179723501205,
            0.6670579314231873
          ],
          [
            0.35346168279647827,
            -0.017101740464568138,
            0.10223697870969772,
            0.2272299975156784,
            0.37910398840904236,
            -0.27973315119743347,
            -0.2152012288570404,
            -0.024235710501670837,
            0.0010041857603937387,
            0.109349824488163
          ],
          [
            0.14906416833400726,
            -0.09880511462688446,
            -0.11724376678466797,
            0.10517247766256332,
            -0.10990078747272491,
            -0.07661160081624985,
            -0.10255171358585358,
            -0.17210569977760315,
            -0.0852293148636818,
            -0.08878903836011887
          ],
          [
            -0.4793862998485565,
            0.4019881784915924,
            -0.1255839616060257,
            -0.45291802287101746,
            -0.4376828968524933,
            0.05807914957404137,
            0.26901888847351074,
            0.34172874689102173,
            0.045868854969739914,
            -0.5074496269226074
          ],
          [
            0.33392730355262756,
            -0.08025429397821426,
            -0.07422477751970291,
            0.18845611810684204,
            0.29623594880104065,
            -0.2619107961654663,
            -0.2440333366394043,
            -0.1414717435836792,
            -0.06801918894052505,
            0.24559912085533142
          ]
        ],
        "biases": [
          0.14351513981819153,
          0.030715884640812874,
          0.04562612250447273,
          0.02823551930487156,
          -0.049050223082304,
          -0.06463983654975891,
          -0.014069199562072754,
          -0.05303049087524414,
          0.07148535549640656,
          -0.16441404819488525
        ]
      },
      {
        "weights": [
          [
            -1.9096955060958862,
            -0.5925735831260681,
            1.3776848316192627,
            0.9843535423278809,
            0.5742732882499695,
            -1.2852667570114136,
            -0.6175855398178101,
            -0.1434824913740158,
            1.0664937496185303,
            -0.6539303064346313
          ]
        ],
        "biases": [
          0.1337297409772873
        ]
      }
    ],
    "inputLookup": null,
    "inputLookupLength": 0,
    "outputLookup": null,
    "outputLookupLength": 0,
    "options": {
      "inputSize": 0,
      "outputSize": 0,
      "binaryThresh": 0.5,
      "hiddenLayers": [
        10,
        10
      ],
      "activation": "sigmoid"
    },
    "trainOpts": {
      "activation": "sigmoid",
      "iterations": 2000,
      "errorThresh": 0.005,
      "log": true,
      "logPeriod": 100,
      "leakyReluAlpha": 0.01,
      "learningRate": 0.01,
      "momentum": 0.1,
      "callbackPeriod": 10,
      "timeout": "Infinity",
      "beta1": 0.9,
      "beta2": 0.999,
      "epsilon": 1e-8
    }
  }
}